{"layers":[{"input":18,"output":32,"weights":[[0.7407954585481425,-0.018257803257113667,0.30279442760169106,-0.058910336863656085,0.24166610978866856,-0.07602389467415022,-0.18557296523876754,0.2262069978329723,0.05570174535523315,0.37344647254380703,0.027096652500159517,0.14402983295186708,-0.24278897982676614,0.027850654174283288,0.03455334220634605,-0.2286503093199668,0.1783659876415205,0.28234500534620083,0.1431372022480086,0.1338634240522777,0.030091679822864356,-0.08253959420737685,0.03337890489437378,0.3205705340925829,0.028892558934391927,0.02041835399012609,0.23526305629277613,-0.5925372186987601,0.08656552477733143,-0.06103977118084272,0.2711478137862942,0.2042178225641624],[0.007701600724350241,0.33652687964389844,0.28312926719678977,-0.12972553080817006,-0.019766027888024083,0.47269238939119707,-0.27168100277848173,0.2613427625598206,-0.03409280766104539,0.06630379753820685,0.067443903870461,0.14544357322608348,1.007361334150324,0.09010515598012225,0.11482147152075871,-0.29606230643183035,-0.14691975625918843,0.5117204779690719,0.15066734926998884,0.04265645880287898,-0.04442787058466198,0.20719451668792882,0.601701314121716,0.1993675667449228,0.38505767971410554,-0.026520317990237213,0.29554290673838546,-0.17049833551416355,0.37189352367132866,0.008805863098639958,0.03439454865649842,-0.03194984296279956],[0.12534404442739167,-0.1784761665412036,0.30773318600283317,0.17895943769695843,0.11792612793240316,-0.018791973089958933,0.0076738314972584695,-0.2124055105970666,-0.20374353320350033,0.2601112862752857,0.2740580923908487,0.25553708137683995,0.47377653122587793,0.36838351809097863,0.03943994224268394,-0.22037019076257341,0.13295697130088516,-0.1701557216118352,-0.2646247980141334,-0.5845799955064864,0.44843097840215423,-0.1657506960792105,0.21063401602252865,0.03275264130343036,0.09039339990084116,0.16303786702742604,0.13709523334513618,-0.043715171880805447,0.41175638566435624,0.1408807011232803,0.10218010059316221,0.35579552663330494],[0.034869120030630994,-0.014519469634250038,-0.10060420563530466,0.049826091032842613,0.6003730000206993,0.13168907619956377,0.3549271173131747,0.39875181668576215,-0.04300460873656686,-0.35286718260440925,0.10350943943040695,0.06709091563084209,-0.30578949095458124,-0.07102349498771733,-0.07228147739320079,0.17092300398515986,0.2150677983443267,0.17386105852279843,0.23624841284539996,0.15267835941428692,0.0444923546796086,-0.10431784378661062,-0.2620436476439191,0.2945552929955289,0.179595447470515,-0.08944117451801065,-0.05394634157628957,-0.08508030262991788,0.5058647305962486,-0.028316483906061965,0.14483567408816964,0.1384242366210657],[0.16672466351085938,0.0592996171543773,-0.056272213851686494,0.2329263075151634,0.09873223884984393,-0.017544189583018472,0.024082050924098278,-0.18319701947269532,0.10484271626213917,-0.04654895006332298,0.16011205681556887,0.14176764371206546,-0.06882882035832817,0.7054571750281456,-0.39475313894043734,0.15464231462576047,-0.0570732573942871,0.055500765043934426,0.11533100289270556,0.3380198096471922,-0.016771922061206927,0.4639244899580728,0.2378345418682567,0.21851695440319927,0.09580523187270681,-0.07406070253927025,-0.2265545129046939,0.5350028354573789,0.051276603909910935,0.09999492866435263,-0.10427774233275566,0.1937772450467958],[0.07561197697226835,-0.028002794596099466,-0.07228467252293244,0.011880076644611897,0.11635010211013147,0.14205649985591917,0.1885174213208839,-0.21437757402573945,-0.1772161276311386,-0.21827437274706238,0.32352327806005865,0.1736992987225745,-0.018099035314213294,0.04716602979383358,-0.038171060053192374,0.20492533188729334,0.20911798092359105,-0.11157701620115763,0.12975515770091273,-0.09717764538353989,0.051144255938503184,-0.1838821793314959,0.1666800916454384,-0.4477326794232898,0.5553747856435878,-0.01564391291886594,-0.00965535277146272,0.11812708517857562,-0.20559961475255248,0.06513444940609979,0.108956741358202,0.26893737329508777],[0.02174062766958755,-0.007230259325254943,0.22278618936954064,0.006378485499212921,-0.24434909037645608,0.04377037975850113,0.36545997766872446,0.18273141376821156,0.12224725060253763,0.4890361782031621,0.3863873681240214,0.05701288630155354,-0.025250947951992966,-0.24443056119985315,0.027780346756075634,-0.2947504159902664,0.2026628840857063,0.20865322954754686,0.07472884811935938,0.14511526416113252,0.16339491303426293,0.07381815856378543,-0.2431304766845449,0.17018626792055946,0.09776772298472326,-0.13757789965768924,-0.012571412841683687,0.05084326225901694,0.28214514870557394,-0.006775744409734957,0.21657195621061345,0.13912360385507272],[-0.01798653118684365,0.3153933664138017,0.13337223665719256,0.029698858595754878,0.09069563156659648,0.4886931308939321,0.30161646959323574,0.6037095687676773,0.06608662651764362,0.08809770261037687,0.3190201876706945,0.005215069116116686,-0.0051416971847875765,-0.06501831017165126,0.21168197262892618,-0.17315383202054516,-0.14275531602326472,0.0485564045670595,0.024912277186606508,0.16209845979014953,-0.05941881948751633,0.18931413181312434,0.04072946047485881,-0.06901818418335813,-0.05058416044701583,0.8493898727560286,0.10490274545262045,0.08280722667759152,-0.0014997103414274334,-0.0931326508281309,-0.01970320143003898,-0.03861351859460872],[0.05612187702436434,0.35547275505079995,0.16748667445239215,-0.07379584880313247,0.23407609896442114,-0.041836220809058744,0.06190537194971696,0.506346048085537,0.03383401817742511,0.2662724761203771,-0.3483603701249591,0.05761756718550607,0.11178224218582077,0.0018189134501529587,0.2951862477248426,-0.21459134386316914,0.3831582419357082,-0.11803931440730789,0.6111173264823061,-0.13139011280194418,0.24005678082039308,-0.06006928111708539,-0.22385989197592124,-0.2673265723720498,0.1505156891805756,0.4093386891013928,0.5278316216161895,0.505613217812335,0.21015600245142266,-0.058719723017288936,-0.7168373664071368,-0.06353521254495796],[0.8677569945150501,-0.15701790956952436,-0.2633249696003123,0.1674631634553288,0.18163091108153256,0.18874238778561284,0.0744970238774907,0.21849248410443625,0.056264986726539463,0.024022059425663243,-0.022307369589683126,0.09489972812572298,0.20034164909819768,0.0016793795415381196,-0.1508833206643638,-0.1715024082391894,0.07478618302804103,-0.20259975872950875,0.25134420300509114,0.1786169806694761,-0.8407190332060759,0.5206427378253908,0.06748027842686806,-0.006120462627475301,0.11855364807541408,0.08899003596489267,0.08283347713878021,0.2117962712852818,0.13496597241252664,0.045746949874973644,0.3782570417195825,0.044104636166022525],[-0.03356056927252129,0.27558287143296967,-0.26302722427219727,0.9798878233469587,0.0593621844420594,0.006336967582018575,-0.002047045861694802,0.3723623007398159,-0.0707845557126278,0.0009302344957396776,0.2139044708991215,-0.20072000776833324,-0.3184100976790024,0.0037136625833854566,0.17791238810827228,0.08405483995175816,0.09438842018778994,0.36040879306653095,0.36688014192792845,-0.007027166419479901,-0.0003640467947429848,0.5689253861135017,0.034980370616709375,0.008438490176904914,0.3584418853150368,0.025007803897124023,-0.10675643619676704,0.26006407010271604,0.24057620917396208,0.9276468565910275,0.003503983349904662,-0.12465685076207716],[0.002702554196745428,-0.21515077192475934,-0.25559206874399126,0.03433092385932291,0.2259300956576532,0.007907516827165046,0.17798621131443224,-0.37055265524636416,0.7566976666850098,0.12018488831194143,0.13824638083909752,-0.0876165865187264,0.020063293611634746,-0.09246894356862292,0.44926238219231585,0.035056683861759884,0.07905195682934514,0.06488600587749989,-0.3569186676732122,-0.1313132210330812,0.3271089210418411,0.17040267382511698,-0.19923227708828087,0.12498755668966485,0.03583786442846357,0.09449797212735644,0.29386763488112044,0.2172505306120193,0.3985864584503063,0.029627737599179,-0.15938431809086182,0.46265538579301196],[-0.05337537860978599,0.20140492174094188,0.26308375022446906,0.1793114154608099,0.3915565470036591,0.035599993596037154,0.03590964384394285,-0.24477172151829502,0.15305572240419635,-0.1337477268826221,-0.06833419422962744,0.1470582864415307,0.06894320717241324,0.0021259769366089283,0.22340727125921506,1.0410884214460492,0.08945037187345727,-0.20404036853005075,0.14371763398266305,0.0769868741277839,-0.23868378148486494,0.6153339305385064,0.511564221150695,0.2220324570559885,0.051885506430254406,0.05200920414170249,0.07235279433881334,0.07716272684275265,0.3942845682503035,0.06354243250166026,0.3979836117791975,-0.25638998179853123],[-0.1455779063948003,0.8965991159396098,0.017865413456798006,0.06253646552841041,0.09511975031867623,-0.35370438106357366,-0.010430052379373403,0.06374415643653845,0.035247200389742134,0.22066322615241468,0.41787388620491117,0.8739582408928385,0.31177973018125665,0.02684252473294734,-0.08023673702305109,0.4053334650895542,0.3484790522041083,0.3576628351399071,-0.30220559213393156,-0.13748966736035464,0.24050645542335627,-0.2524922612559323,0.27933187790489816,-0.035627853048001874,0.024640815678660142,0.10433522079338613,0.38009001854148083,-0.2585499902594155,-0.04650567172864831,-0.1404619885777638,-0.24634743074623017,-0.49267178698303254],[0.01388274796875932,-0.10718108999120919,0.13001517109863292,-0.3311390781390557,0.11613372566403651,-0.020138919142612576,0.16192349600802883,0.08035312167108147,0.2951857357401019,0.12123915729939916,0.18433441043358145,-0.05297847607039056,-0.00574242607175654,0.02222401475179717,0.47287100166136087,0.06979924831865626,0.09957672768693562,0.15239334004513827,-0.28056238324522453,-0.009918407008500375,0.07916415086845778,0.014906927525207633,-0.06492623604538263,-0.032964739881303155,0.45537651370710186,0.0303564109937804,-0.010214403093476728,0.009462650077106347,-0.18235841473114162,0.008468856790344011,0.2723191604908015,-0.14450574901245938],[-0.05754170647965069,-0.2264134182007879,0.16782817652931803,0.46807416806014335,-0.34274051262376387,-0.06292059762724507,0.27236937352380575,-0.303461002826611,-0.048689655385649795,0.06893030427156292,-0.2666338216972438,0.1347732905361394,0.41987444236603993,0.29632766476261835,0.010724047687970096,0.1965228611650803,0.07088563739422926,-0.11521153712335422,0.2922135897126593,0.24933740438811333,-0.5373967133058021,0.3952835393402489,-0.02775905131659507,0.013893417580561776,0.33010527209723445,0.19844114145169214,-0.302235319759273,0.15361543307960152,0.3294698743792365,0.07786865297088263,0.226767979744817,0.43700310108956236],[0.07540333150924232,-0.25113915509695856,0.26955176008216053,0.03754218441032631,0.18642941559672735,0.07745860641801766,0.17231642344479703,-0.5007619627368559,0.016175754308714048,0.02247737605327976,-0.3099514109769876,0.2712369464816079,0.06180636087826604,0.016853892354332288,0.2676382537430026,0.03825345928365849,-0.0230631414456483,0.4334716139382845,0.4375780426669166,-0.08646977553388556,0.05324303092518056,0.02021827920223391,0.4213223548150843,-0.0344259791005028,-0.20406798469081755,0.051878557080009394,0.049999779350752296,0.056360747045289324,-0.12306608169621011,0.8852401115939355,0.1660715887736504,0.2166381299780735],[0.32227703047185563,-0.0869118523691698,0.215293001512611,-0.09951935067223543,0.07431407168415836,0.4499663648958904,0.10939743649617346,-0.03870075440622112,-0.20953602222495382,0.12026536695182341,-0.7505421236899884,-0.2831164769861675,-0.06493249531544025,0.027715270908665633,-0.16662339799208487,0.27721775829711653,0.09482885805696441,0.12056180678703912,-0.266603145962588,0.05462826889307495,0.31591119904379283,-0.10347770911423304,0.24212898476810937,0.9921655252967201,0.22132892689824069,-0.04750965817470356,-0.07827677096718211,0.08669675160272984,0.15199789665341198,0.06297860814532628,-0.2744845011547579,-0.15741360933313261]],"biases":[-0.35288856388927015,-0.5340771961110075,-0.3002963219329282,-0.7289337588826582,-0.31727656027941037,-0.7749832261227318,-0.08722020363664587,-1.1780955277009033,-0.6275648365503187,-0.3124734071066115,-0.4163609848471977,-0.5303169360349274,-0.6494023882141519,-0.21896625311234105,-0.6685625212120151,-0.8353625260359576,-0.23614409417977134,-0.4768165677497761,-0.5224380351554315,0.04315497042599986,-0.26051231319956986,-1.1407879481411403,-0.9573122701732023,-0.7473947439802848,-0.19034648957526085,-0.3753169145619505,-1.0718965056908587,-0.3343529539851543,-0.2895959969070142,-0.7463103919031141,-0.21603765506426106,-0.2735705558123146]},{"input":32,"output":32,"weights":[[0.22433466093061136,-0.00991682433112543,0.37891881977459657,-0.270881034323489,0.651631144089264,0.5784095190423308,-0.13999025350586705,0.3174853907420358,0.6826549641939014,-0.1480528024331325,0.5208964588762754,0.5238994203135532,-0.24538053276742397,0.5900963777480306,0.5766464788331265,1.0904513207999955,0.02104180817470745,0.653786928788547,-0.013176850385124521,-0.11780796716437884,0.6237634600419459,0.5907819539913024,-0.3980554040155892,0.021182506508849192,0.031640252188512956,0.3909504367868393,0.02009533682698653,0.3760923792952102,0.23811581493294154,0.09859246535921262,0.8411306261304703,-0.06900192639632784],[0.25680792368493965,0.28064116444635673,0.5386664253711393,0.6584776579815467,0.01014769170555233,0.15739631088753941,-0.05053538344830783,-0.116841057102142,0.639690820566263,0.7512986334399268,-0.080208207117006,0.5236927878620032,0.8999628911458458,0.3683272022806736,0.38976816872568015,0.5666976027921498,0.0772717125111177,0.42583206573724297,0.18592065308677252,0.00926287771035793,-0.2175265323255398,-0.06556532007174808,-0.018143113019109116,0.016140520831931564,0.46534127718389545,-0.30343834817939763,-0.017599144066962318,0.5807408256801594,0.17604759529080005,0.01672289600780756,0.8840201475841872,-0.11725081402931263],[0.5633181150840952,-0.10440600928853251,-0.17971908251488405,0.6617531075509245,-0.024870152907124323,-0.2075071102807183,0.6540668016209424,0.03233990307309685,0.35739582164879163,0.3253909512657931,0.11351642577179291,0.6253574541983501,-0.04520401677647347,-0.07156188537341479,0.12581934019806434,0.5627319660275847,0.2611704905215968,-0.24778252882615628,0.4428270868199694,0.07104932174321842,-0.11109525777321552,0.2772884409318365,0.3569625363146718,0.006968164237582421,0.6821441605608389,0.034630631100156815,-0.13095271567859892,-0.3126026068821264,0.20100709903459285,-0.21532291647725355,0.05268137317068838,0.3411207387996246],[-0.062479578077218795,0.6565558048689452,0.6573195755162486,0.4331270548444343,-0.13974510016588423,0.47703417455597186,0.33248630152986847,0.344434361047713,0.02833295615812683,0.8087020040246417,0.046292152533573466,-0.13972298090238927,0.8131666900977357,0.7148080422274484,0.7340351652827494,0.37627845192685205,-0.10671317402785391,0.5583264238758546,0.576564628428331,0.6140345320271978,-0.025996551273936096,0.1310222788340506,0.23416588605246472,0.13705134677853636,0.19610882299565033,-0.09739507273519957,0.09243258263161433,0.051360411224239524,0.8478111067286866,-0.04149303129223091,0.6944953554908863,-0.19842199655930962],[0.19239163959094574,0.3741634332894668,0.6562230216686992,0.49529106309352416,0.551642473038777,0.7372931337667438,0.27484827256517513,-0.3835855271321685,0.05287750392652136,0.19223060856900878,0.8630145109177797,0.23545691866838867,-0.1397851469165869,-0.05546655149922162,-0.010193413605841712,0.3256866637958719,-0.13551535076062413,0.7343686820310408,0.3413483619578594,-0.02841889989624559,-0.17026375058198207,0.19191056742241164,0.13524299342271842,0.42758792411157764,0.4487106945086413,-0.37080751487457536,0.4990645884401046,0.26151121650640463,0.4397878280968466,0.17271380971371167,0.41988408594435817,0.2205075216541973],[0.339771334181088,0.6989943261984205,0.19987066506416873,0.8324802980270304,0.3068314069146516,-0.0929773419518771,0.3793068076842353,0.7077143311024564,0.11391994569875703,0.07979434749812966,0.3252533235007048,0.7879071416982294,0.5611497475377751,0.42424047056258307,0.09715882812450996,0.5853636976282829,0.801418399885869,0.06232808608168886,0.15606427332161016,0.8290200340719831,0.2764789327012999,0.7143810820887095,0.3484923338761107,0.3981033210573617,0.26020190452499536,0.6789808620557375,0.6450329370087083,0.6936994182239615,0.7105492904120099,0.7262113226308172,-0.1567260315053747,0.23779544721315019],[0.6767760029555411,-0.051132634154112865,0.3105903267625412,0.3214048594626133,-0.14426255811607913,0.018771996926694286,0.10696816319997837,0.2556573440836433,0.5713155247307029,-0.1207158514529624,-0.07900476885884708,0.06507407768196337,-0.3458961417212128,-0.30103511527327115,0.40218755246907156,-0.5113787708216285,0.5096808688141167,-0.09376376180531878,0.3418930882477576,-0.17764703707015467,-0.10750849462629979,0.05561771070912635,0.7287403258433622,-0.23603739668935061,0.7836681944347873,0.7912672025786334,0.6227965132746446,-0.39231968122067634,0.2052024525226289,0.029833654136621666,0.5208973126473688,0.04536507864004707],[-0.0525119354660763,0.2983729001715232,-0.07300330312471782,0.3885410610128213,0.6727853070725814,0.4765862858221364,0.9548510739531657,-0.1418695347519082,-0.13295955357782566,0.5091016853853031,0.7079066042619617,0.5268751204066007,0.9705214002251292,0.8571289488426583,0.7811759508423811,0.6470377266351776,0.41947627032048646,-0.0035311394776940713,0.3378827745143311,0.49098148604138503,0.9219809846226823,0.45398631574223636,0.4942880857052767,0.42023836979722073,0.022915294842611064,0.2033090955323188,0.6292214524959541,0.6232825479562498,-0.04604792378334184,0.9464243766968234,0.31669942846901816,0.08680960602638556],[1.0490424974739927,0.9831220893853838,0.16097163837453674,0.5740678216670985,0.7162578364451355,1.0599946347192888,0.3135294108393905,0.4570338919342195,0.3008376133619822,0.7874160013940797,0.5040591487758097,0.9029969435615017,0.23326097414721253,0.6464550537893993,0.7932222523237525,0.37780292428861734,0.6760238194274165,0.49077211991330505,0.5750343837087011,0.6899779312148185,0.12802541911351834,0.2684055081993512,0.8786083416050298,0.8429534377692748,0.7372707777904568,0.539157245143684,0.11853327210666134,0.9574083207165589,0.3840789809949068,-0.15632889490644009,0.8342058141073068,0.7215952693262649],[-0.12510398733825248,0.7112267105079023,0.5238611411017272,-0.2563190392130336,0.32797881607826374,0.3599314595065652,0.3291422127886747,0.7572163782998714,0.7141145418650147,0.29977984071692415,0.013447838206003416,0.028689745183943544,0.5072085399824481,0.015821633534647876,-0.24792821780499968,0.17276554008821096,0.3958128056100655,0.02310809246103741,0.48088198333865956,0.5105411235336397,0.6965206215708167,0.6125802089041715,0.1371273368246897,0.7950487661787919,-0.08900894766379819,0.16630934140657425,-0.03382899363762252,0.671504208793993,0.6998730948083887,-0.33154267542702104,0.11618613409312518,0.5666345317515823],[0.521419557685946,0.3309353786450413,-0.062242402926033245,0.6578440442762232,-0.13383274122252858,0.09774851092743261,-0.13196458209175463,0.3625858216506164,-0.027305595974844374,0.22888684202811133,0.5293382841614973,0.1661799643593533,0.21366451372123063,0.5882407450145418,0.37329659155387557,0.5796571865039155,-0.2054476353558734,0.0016741220443824859,-0.19590304735368036,0.7443684461286589,-0.2580593549602308,-0.21998949436930673,0.41836005875362803,0.29275600880869684,-0.14582766839064656,0.42086844291611303,0.18182897109758595,0.25106967072835196,0.08510679948692652,0.4575555775399791,0.7866907334882955,0.44673422009120656],[-0.12415363226446625,0.3285930347049673,0.2057793756494047,0.5516020870133113,0.6322197919312509,0.8078199613358049,-0.0483399070871707,0.23338297429952443,0.49427761325896363,0.42077638205229484,0.07222749893144871,0.3571745425193064,0.11883202901092121,0.026061855596925646,0.28081466290558516,0.35010784764177155,0.6427028952702944,0.24750431331756628,0.056076497513546895,0.7273197451753151,0.5593363026324903,0.01892367289802407,0.7033586634369913,0.24510684624525897,-0.10199961641322638,0.4267168727818855,-0.23590183066573564,-0.02482691412927703,0.1489077384842375,0.7865434470812805,0.47054640753126564,0.10423002271973476],[0.11379774456590103,-0.07590649398288184,0.3822550118832465,-0.09300113029675457,0.6443669062366254,0.47556878017826804,0.176425401344002,0.14095860101417446,0.15436474349196644,0.7916576403118204,0.38473477278279616,-0.17621287426764423,0.847118099008938,0.2729037409341229,0.0813299857587429,0.0287563561229199,0.627933601717662,0.17550198904306835,0.37594798036445853,0.32963078371304727,0.4604341681352543,0.02358407597167147,0.39330672151978774,0.16699970278750667,0.10544891396634118,0.07226027035487617,1.0165777963723461,0.47797558435622894,0.23247885216194877,0.034402257803091536,0.2950628186402657,-0.13635100366638297],[0.10623737148247116,0.6808618513033422,0.45902146293389656,0.5689733982866882,0.8175084494651433,0.6835873553779013,0.23463751327092236,-0.019456857218886306,0.24615404405078076,0.7853735532784728,0.354731460896014,0.4001493520936468,0.7740620388943409,0.7906228359673564,-0.009939156036325588,-0.0877865831766464,0.19086227829602065,-0.05446956359338471,-0.027890914002886246,0.5476880427712456,0.20798415001200554,0.6441010893349267,0.2234616934032477,0.8357982941055697,0.46545700478027763,0.468995545010786,-0.11201846488171448,0.0054343564746394905,0.0769540579384012,0.7116842748262032,0.24430631791481813,0.4946502628042416],[0.34365304216006154,0.4371642777334801,0.38674983051673734,0.4527006266899183,-0.06036188234952715,-0.11820724848156193,0.7245469121925197,0.0011230349663004225,0.4567189828328555,0.20487057467334696,0.5531583963597319,0.33507016660679867,0.07779804553900288,0.9203402368046488,0.7176240153564644,0.5726788737534315,0.611417778679393,0.7282057305590991,0.6473587718954552,0.6223373443186229,0.4476815791984893,0.7806674896443886,0.43007036542300736,0.5579612874318003,0.2709979573876535,0.4673686755100856,0.7895878957275574,0.03884673517390339,0.7518187972170125,0.5590501392741275,0.7208457685434652,0.14741084524720122],[0.727692497360069,0.1193874508019281,0.5039116371295672,0.39207081634533586,0.037059268254532894,0.4780064922299158,0.2421170639158515,0.04836081023586534,0.5693461090079263,0.33947947365739556,0.2336511346437253,0.17422918404698623,0.03714526257548961,0.3896443190171032,0.4026849425987904,-0.1276923562056852,0.31193890176353184,0.8215524660277821,0.14219584568383306,-0.021079361055718414,0.7536799769767657,0.5200213678980852,1.0152546092906902,0.07199906437881869,0.9345569263357479,-0.10569651385831831,0.14480178026525284,0.30116705073057853,0.13426841836568842,0.8015151446269514,0.2726981809949957,0.6273595506767073],[0.11487778427147093,0.025833571719858648,-0.22690799940680184,0.09368749888746959,-0.04883101197050086,0.5266349843675013,0.7035226584666889,0.4910912051807393,0.5778937423562854,0.7773719459417879,0.5598935343158208,0.475264916820856,0.0740983625829907,0.7619903393125582,0.2771594517410228,0.16928051172168115,0.17205767593634796,-0.0023298962041336225,0.04470552185003482,-0.21478060051712194,0.7703993995924369,0.5773631281963539,-0.3485826493045007,-0.3096147530460532,0.733220344719101,0.6267576727717483,0.5144387602224995,0.11083824874811839,0.14990541721741588,0.25483698831143703,-0.34720589861116863,0.7585454893881433],[0.2148399518743843,-0.05568876049390058,0.19604312147307668,0.2816610484785599,0.4848979641899958,0.6662493715412862,0.24404922899186715,0.15359133050055002,0.5321987616356675,0.27865609800952146,-0.04606548878284574,0.5177960628069792,0.6843782985226133,0.17362127076268322,-0.3689630866975433,-0.09456769802545477,0.08958585791168604,-0.2222608498228778,0.6605783245561773,0.30470675224244886,0.20594913463634468,0.7481743944926291,0.8455237433516668,0.18055955292071152,-0.4133246643083477,-0.32308504151384915,0.2605244238889614,0.004896618063637307,0.05412991503037452,0.46763150205837445,0.5453970835247263,0.27517525635081574],[-0.2272634529729754,0.18543271001959338,0.1524671166641154,0.6516323275945533,-0.01544766181297426,0.1762990822081116,0.3931066207469137,0.15115517704997994,0.337968166938741,0.4819860574491847,0.5058370012879778,0.7874563132299309,0.4186198739102711,-0.3590318417074806,0.43470540627713516,0.10494081027704065,0.09639372215512992,-0.30092210462573976,0.6286574561368398,0.9132258106216391,-0.11183163812749315,0.356327103888672,0.13647479339866014,-0.02595566514648735,0.05649202387220714,0.40362889998989687,0.5630912437655968,0.6327944167802065,0.21762510271777605,0.40545630929981913,0.21407343886760805,-0.0032995188662707574],[-0.2880094075428156,0.07918185284999887,0.4097611009430452,0.7704621409600036,0.16782954615594156,0.23511203459879804,0.515925009954269,0.9107824660391212,0.7985213754556312,0.4958733911924883,0.11207465302087886,0.5219576343960733,0.369841557756837,0.3776935435472522,0.960303922488743,0.46467782886767556,0.1879278661985067,0.2514725854712129,0.4275917963207316,0.002266676583757024,0.26988721916814573,0.3246094920747581,0.30734842438982024,0.5423645269133154,0.4945318535122821,0.1878981430194881,-0.11484790022244763,0.5231332829442249,-0.3175335361207583,0.1295632263573837,0.3441676644288746,-0.3522151599327309],[0.8804086194765565,0.7544310533190386,0.3191023753840502,0.08079619542796278,0.26416836517047326,-0.16329755091421802,-0.3491522428227214,-0.0547636052844825,0.38750693282358484,0.05609076059412935,-0.034731931243747065,0.7338943818448396,0.7252953337930483,0.5195865642045077,0.06448420501404808,0.014789406444911248,0.13879636562564718,-0.14648007377005548,0.13600665630818368,0.5332402423709863,0.38366012231628804,0.5505968746457097,0.3697298266654761,0.6267025363751033,0.35371874416056964,0.38753680351762193,0.8394819036548039,0.2194791770065787,-0.024656193262759515,0.830830635711977,-0.04531890897342388,0.6114991156462574],[0.3889292133708826,0.28006166459813125,0.5968754405268691,0.9407616520271196,0.16480337267216222,0.6196461482043868,0.5564997971122807,0.19565366268244863,0.43289083170146697,-0.0001103298333157788,0.6436569246464423,0.23848113709365248,0.7670285138537569,0.22704206851776518,-0.051849332895411736,0.2545454856962911,0.8061262617724411,0.6077844320850686,0.32071564734555796,0.28114893448943823,0.5850805664346553,0.5375856969025651,0.3632180021100012,0.5753475667372279,0.35325520959006873,-0.17768854623931338,0.3465754554706516,0.0812240300061789,0.3889535799473739,0.29263386232022975,0.8789768162444439,0.6643422385859421],[0.40348508011562434,0.403452976219143,0.616697397788477,0.7420243529469213,0.44026452059593985,0.36371668391163825,0.04015848775159052,0.39572300723217235,-0.008202232106130584,0.4098984648195739,0.28998844166621046,0.4350737774852994,0.6241524362474339,0.163373483817944,0.1863685718507571,0.5890803567124491,-0.03052128457679537,0.4335000743170933,0.055525074888083274,0.09515635084421203,0.32314081642224296,-0.0397658218638659,0.4877766426465993,0.45777843576038685,0.046912423079901504,-0.011072704647523307,0.6422568474938338,-0.2287388509270731,0.634573547487756,0.3708893122162909,0.08420648303718449,0.5591756627807459],[-0.33937760030306546,0.6888257975878025,0.4655532011944015,0.2945794695165892,0.2310121389880779,0.35470568874192177,0.07752159222361109,0.00505301250503326,0.42321242482334004,0.1491694406584898,-0.18781585688594898,0.5628778154112222,0.7239794395557686,-0.030991865528033118,0.4667882308442226,0.6502127530942731,0.18103478802348777,-0.14473029268768559,0.32851393140659696,0.3564042076299564,0.03459540171419285,0.4054339236792836,-0.08449141006021416,0.22638832223881136,0.8405064048267832,0.23214881128190698,0.40909473209030184,0.37496838272188976,0.7795618331319691,0.500176212495455,0.03841631326957417,0.757454994584283],[0.29000888428421306,-0.20233501346332314,-0.5528414326618143,0.014040445484957384,0.23638344265489686,0.3214610578554584,-0.016496277472702967,-0.16760960734179642,0.265361144689037,-0.44727550301093233,0.436368684256965,-0.13444483829356246,0.6650320863866334,0.5848654287031695,0.15023299072451962,0.4856993512468833,0.12742108741124905,-0.18842274324667843,0.41457903867065277,-0.34945436216698644,-0.17309787471711935,-0.3614120215290738,0.43237507132483477,-0.022526790716799083,-0.14697447265197447,0.21237549827422353,0.39344075000491735,0.5144332008550018,-0.2534222451165118,-0.28593400108261563,-0.17791308309178475,0.9310956112624892],[0.6805876870378296,0.6516141800171497,0.17314807361172285,0.5277327468738061,0.5387661567539038,-0.049701888413982556,-0.2753884012098807,0.028495341852665803,0.7334536432561062,-0.22986917922249803,0.07383696769219061,0.4333954265122114,0.04007744914751647,-0.10068793102616985,-0.15160142273478572,0.4926307815119275,0.623861799926505,-0.17800745807188367,0.4045993848782974,0.563379506929121,0.10906783942869544,0.8296103979957153,0.22915331630068184,0.6403049978096652,0.0921036349187764,-0.08786887436464098,0.4633970963575868,0.1730783155101156,0.2031517255981984,0.07531574791687967,0.5754861213898764,0.24977083230770294],[0.8429065065525252,0.3292259594074673,0.6848887108707462,0.820281163646662,0.6981463132519248,0.557390637172941,0.20452631637183638,0.7222515433733976,0.3631991235827973,0.08891913775844884,0.10915183749950934,0.21362669407490978,0.5859417135624034,0.6937872265215478,0.1849985299738177,0.5241996917972349,0.2620231110993897,0.09310865279676987,0.12413472562609959,-0.06987970153676146,0.5197310660657171,0.9847135995272507,0.2340836155769462,0.28292823588373894,0.2689705554398496,0.10068050884070259,0.7527668177388063,0.49288409786111614,0.3105469208758508,0.6451672615271359,0.23484248194801813,0.7382318015956497],[0.3640633779364005,0.5469789441502523,-0.19369755885356144,0.831930533595256,0.5808688849459174,0.16680028542947636,-0.02312959971736321,0.45489258314009334,0.6652698849183643,0.2715137853671245,0.07150885451587191,0.7340604634978054,1.0127709753788494,-0.05060251946160745,-0.2547076621999026,-0.2576106858337347,0.21140664737609619,0.2554345489336117,0.3107459830042897,-0.12046862537246952,0.13444080634216915,-0.0610379350308178,-0.25206838659434033,0.11152833961541529,0.29506051895942303,-0.08722976388794472,0.45525399088207935,0.0931209683349344,0.600701418692615,-0.0611048242964603,0.7137977344160539,0.4018697870207903],[-0.10662534834286932,-0.23953568211845191,-0.4350180004288653,0.35140764175231737,-0.36670922727767613,0.2527929325638543,0.35924130024130735,0.735395297854905,-0.1079485681341606,0.4520721517037974,-0.4695134411313455,0.5091397709501019,-0.27833932827304037,0.6487026511281581,-0.0724721989406981,0.35255925230381974,-0.33105422892329733,0.5904861098980526,-0.39328171011498747,-0.18342981257270097,-0.14314462812722523,-0.23439956417035646,-0.11281268166674834,0.8284703127090216,0.17617223903948148,-0.2046367410704613,0.5164954625958764,0.0077499930778693145,0.6131738740766306,-0.03739731615034436,-0.43860016483578373,-0.46656489624503306],[0.38054726890003426,0.5672929180609767,0.4967434047559772,0.21415872694619162,-0.15472736973967915,0.4927561842274243,-0.12455955912302336,-0.17968669801197845,0.3478629072389499,-0.24084559790201826,0.3691771507224287,0.377844244005622,0.40372252681183607,0.3248700944129289,0.2640769295074507,0.9192286128364499,0.46648094605005586,0.2076273291300339,0.8094598588965508,-0.015152617201300182,0.09855614322249377,0.16856953123546944,0.8589622678207329,0.3551554626510335,0.11368409324545854,0.4459195312685534,0.4147014466805539,0.37234525771395954,0.6834181426318792,0.38016109747709526,0.12672920381132213,-0.3739271645309038],[0.2263293993561566,0.83409579358063,0.20338937843588448,0.6499440464166008,0.306919982504002,0.8395497583433601,0.8187396004678122,0.2935906328882331,-0.1114732084290141,0.4603873217143954,0.5339811758726674,0.11812409182219039,0.17019979507266214,-0.10904868109244252,0.9504750581706104,0.3570567009878061,0.47236594672490073,0.3623287265618498,0.5188084081529708,0.8439616242742811,0.3172954435025344,0.6782607761436635,0.6693914918147564,0.7010024951214716,0.44528821514039807,0.3566133042797538,0.09997140568025424,0.6029331083317283,0.4733580486393209,0.1085095279122901,0.5374561135459371,0.11428261664588103],[0.5290395776967927,0.19946582136098207,0.4197567782009227,-0.08730473287895982,0.3220771141312722,0.4485430033667833,0.43754640799851857,0.35088793490840997,0.22807862321834352,0.555659125970676,0.6779608100685932,-0.2287435655395488,0.21752506613234088,0.6557395037311069,0.2247508984361695,0.030611812994707974,0.3383169359606231,0.3809788884634317,0.0020360667252346297,-0.11538580954161155,-0.08805277418839261,0.9482796593928972,0.7990242844023308,0.42342385359107265,0.46228825750286645,0.6908199951364002,0.16769414834563862,0.6055214746834899,0.6700826991818325,-0.21167711478523643,0.6726977663200658,-0.2401957320311847]],"biases":[-0.33934881636151437,-0.38304731614644577,-0.21102286050669397,-0.3608966944384139,-0.05453815968310779,-0.41676223550779545,-0.23163847428454903,-0.40001827759010333,-0.5596002801136942,-0.18976885761753967,-0.17081165237945364,-0.4539018675729902,-0.48371446960972275,-0.45950653978823486,-0.5281604686722798,-0.28923029746564743,-0.40391215656606255,-0.18293839099821618,-0.3007370698957316,-0.2593436149928196,-0.22632982876068292,-0.2650876326039785,-0.4058400654012783,-0.17561936012076404,-0.6007974190050571,-0.2641966609051188,-0.17532913099115416,-0.4255991071817212,-0.482716128745059,-0.19717383377339068,-0.2127308361961246,-0.14158671644353577]},{"input":32,"output":32,"weights":[[0.30295442531046374,0.7806240089614028,0.3868769152273858,0.4247974905193464,-0.18484869636090293,0.3607925374781959,-0.08543866146327356,0.45841337515548797,-0.037600510636705,0.5819227130299122,0.02746604074225601,0.5148341908227423,-0.07116693519557003,0.7683953963333233,-0.13727745729703741,0.27819705622781576,0.13133440044769976,0.6838369040893884,0.011474731088255035,0.43486362601453615,-0.015665192539738963,0.5418684818131694,-0.05347379204008168,0.6658419031159571,0.8681055264328942,0.3867377159853194,0.47301837845943834,0.716523647802561,0.8673396728979655,0.704227712152415,-0.15059770109215195,-0.11556500745480731],[0.5258471071968271,0.42037364214257666,0.36618561920082143,0.29472520842080496,0.5884772321555637,0.4418182334008166,0.07129257887010408,-0.008534938957680076,0.6304373037028516,0.24892786991816648,-0.16825907872386836,-0.11738809909767749,0.6740247306886914,0.046043108030825924,0.5097626525456369,-0.0215196807907,0.6904453738538844,0.39864954576184164,-0.21393516655579523,-0.06973482757773865,0.19333383563405399,-0.08388670549399665,-0.07322360724052822,-0.23575554831491854,0.7397233480282365,-0.07797326304829916,0.14250505280298548,0.8751698987524181,0.3713626288923175,-0.037813057783765064,0.4084290484877618,0.4580327389655466],[0.34619825553948913,0.8373177496018132,0.15913722902199343,0.6743662961192433,0.6435865797385569,-0.1809931614475266,0.302515192506581,0.6948556794756062,0.16889771111708152,0.2136700174907666,0.8544224859679558,-0.2768471399593288,0.33547831117041926,0.5328011267194998,0.4284800656801924,0.0820445666653078,0.3780034922513495,0.7663532989476782,0.6318541059147039,0.45875106940767396,0.7966281752561208,-0.15232341064762256,0.18702068492294863,0.6812183585635394,0.12836979794958087,0.3613067765867269,0.11864010010217958,0.8208199901440674,0.07734332882251793,0.39794246026031,0.08934865636600056,-0.006182863531451025],[0.05550028939813638,-0.25779124319115954,0.4150296274453811,0.014601049102097578,0.7827469949939978,0.13009136267810986,-0.04658311396199142,0.08468344263402867,0.41503496735413453,0.12805080374551042,0.4354766620422376,0.6313421886284055,0.24942206096876307,0.3499833466482356,0.5213680617337102,0.4976946084099084,-0.13365313231402684,0.7620175108264807,0.5095605147337131,-0.12496286796342669,0.8156665203209397,0.7014706216042981,0.02690668956350067,-0.07192666113885152,-0.0026086507399857182,0.7538398502772475,-0.1810193188577105,-0.06485288125048304,0.2015632037512469,0.6745727182014675,0.4392184222606793,-0.33387513527017937],[0.46283410459919433,-0.05108425639053733,0.7118494666560554,0.4648366222900333,0.5442286850967233,0.023322695120218416,0.2522326817107918,-0.09702457091242087,-0.13425668883213324,0.23098280908869304,0.46285359442290475,0.20474333016152374,0.09578472041695732,1.069885690113812,0.6107381418814477,-0.2355644186477515,0.04203460560039899,0.6216948774750216,0.516200920645907,-0.24993502299789108,0.3765463606697809,-0.14391277404081598,0.6166127606391141,0.26530351029181976,0.52999041827102,0.061358257750906725,0.7655810317700873,0.9192054769492778,-0.1919558439156472,0.44413250915571256,-0.1342697077895968,0.7166387244773554],[0.1518348313877639,0.3002950582678224,0.10578585334546406,-0.05798379589478623,0.111896264934672,0.5380250416652975,-0.025954556376171025,-0.004539352234388727,0.3938522887936955,0.0396390431781235,0.13079135367449424,-0.21937850421174837,0.6744645428256514,0.2270515211508304,-0.2543697787982401,0.539370046943661,0.1993964296738801,-0.25674235125411315,0.5470397119210209,0.0331080354458192,0.5473096150748261,0.0019887309095961213,0.3782992117832812,0.8920885985719736,0.2832944564066123,0.27772949539239095,0.18143899185216222,0.5323669294601865,0.29166639601933014,0.2807533094318798,0.8272529877554646,0.09479117443966179],[-0.03858179708211904,-0.0660499665032728,0.5281864599413835,-0.07481884342292658,0.27345488178953764,0.4904850243732999,0.34197581538935573,0.8753535572563294,0.5444598856875863,0.7248750387224263,0.4547691207042008,0.3517806775944408,-0.044437899924523856,-0.12360158377883564,0.35662090370117694,0.6681160954940123,0.19184543223464814,0.4041968168784548,0.7284633280498217,0.7232250199783598,0.05607484052186977,0.4571628741315423,-0.02123764162866577,0.26643648902394346,-0.021440731321327535,0.35231823338398344,0.7955154805421577,0.25081886323140534,0.41101976913092536,-0.053255679692534766,0.7011893918740311,0.5783282012646183],[0.7082980664695696,0.23440819499765658,0.890806265289394,0.5973532242691402,0.37393739152674577,0.12442619409727813,0.016402221039091912,0.05104057021822635,0.7551118635010182,0.04335356361409366,0.53167788762663,0.17014459218936012,0.06599928344715333,0.04699147598296714,0.5785410980357635,-0.11781790459513329,0.23257225801196618,0.5785386053160763,0.3180584247721135,0.7192090315937331,0.4882186207700279,0.3778940032518677,0.7812198673923848,0.5297224582597707,-0.0834964410051368,-0.006558719650768786,0.4060223077065871,-0.1145818371086303,0.4689480867026854,-0.11037816686067459,0.5597094618099261,0.9298880035723126],[0.29466420306591434,0.03438316944733091,0.4808725093648588,0.7133734998144409,0.7782940894473586,0.1876614207349705,0.3807077896936038,0.3494302365827677,-0.2568332464084501,0.635208140996743,0.8357022652939249,0.5716199917988787,0.639978767826321,0.5722603372528123,0.036892471120417866,-0.12919892669646788,-0.09723841757929012,-0.07954732746573846,0.6629088452365561,0.7417653910738589,-0.05118535524134497,0.31174219312082857,0.7106343212342152,0.5948894571199902,0.027720326367700672,0.4020385955088081,0.5640430639387102,-0.11968610667647919,0.3992414782451563,0.5153641425742489,-0.12776700199569754,0.6805410000552495],[0.8034264859991149,0.7135139663218117,0.49851892866113806,0.13985187191608026,0.14664440612948537,0.5453451999079767,-0.2060169503023787,0.05628890980715179,0.3226592248091002,0.15120304857536468,-0.20505369338148283,0.33392506785112,0.5831249721812205,-0.07709765950404869,-0.011190797732956101,0.6947098472359582,0.27538616915780534,-0.022219406240061093,0.8411102752333224,0.5510217495076063,0.27818427405459817,0.3921785239454305,0.9735915765843759,0.4586742421759724,0.07328586021406025,0.4208123729385277,-0.28470303050663237,-0.04250131104212032,-0.09755438563218874,0.9035576751905589,0.40681002826427337,0.6170121397474276],[0.20715163018264612,-0.11041921910655052,0.33058837975939176,0.5490646523144752,-0.23545253469059316,0.11253344022576243,0.43604957200963107,0.24966864423099183,-0.11191293111363933,-0.21173969368045698,-0.1246325143974073,0.7474596006352056,0.42802817333464405,0.8400418813677277,0.8288137288146529,0.3453167910800905,0.6683864995889741,0.4122967020665496,0.01632853196240541,0.018229777040415642,0.24259777548934197,-0.030411095779709664,-0.1275727247088598,0.23670264236081165,0.2453316063573847,0.8577970950426895,0.4178194848079146,0.6086450686258168,0.7678208417435881,-0.08673705209111944,0.286303674767447,-0.11547520739257831],[0.5129613506535492,-0.06805252232888219,0.7030673040347674,0.6302059610508247,-0.02210587696105589,-0.21983671044871406,0.4128708774914011,0.8111094188562854,0.039236085704188746,0.8531837775487632,-0.16743618951933842,0.6687586318320027,0.13665323550512448,0.5387873773205925,0.4010526415301135,-0.13293801447301845,0.48632388717878294,-0.13392521920840778,0.715279524115692,0.3250766121173806,0.5886402375662428,0.20527168430021533,0.5645691259639851,0.5084464160980348,0.5768110477296864,-0.02133856080715746,-0.0611715830030011,0.171591754113621,0.3611116562835938,0.45083539607611944,-0.052028369225692934,0.40767086086883025],[0.7523735226503863,-0.08550628677522505,-0.17788459694252926,0.7870770215457924,0.5380122158748872,1.1675403182525803,0.3597590641015462,0.44762701270272864,-0.2985071725854698,0.15279932265659057,0.6652830447604625,0.5819333754724025,0.02128034952037475,-0.1403595167617407,0.27502026172603844,0.5615322859243248,-0.0261751011443172,-0.10351453946096248,0.6794220818515231,0.08879429957073257,-0.1795333116378298,0.6745702271184087,0.7379852894571554,0.11853969475693925,-0.22544915060099519,0.08044774193377494,-0.19767594227215604,0.7936451560290531,0.3707791446764979,0.5019630758570844,-0.2611315798303985,0.31076311016577474],[0.06675204672518956,0.6885570071971904,-0.03266592831678799,0.5354684483943819,0.04958086915590296,0.8048820988746443,0.22131601816822188,0.5937358590345284,0.47546323476678215,0.7286174804514237,-0.15619120898621947,0.04512889043199056,0.11668227724027326,-0.12878445092859925,-0.07924741928051411,0.24321779442533054,0.4249367854881841,-0.2172029102888285,0.23342498147942414,0.298703978608433,0.20713497288420568,0.5210081621455492,0.011957063922713037,0.17803878283300809,0.44139122568247285,-0.027042116101806273,-0.07262645943070863,0.9081852530916517,-0.06913535517343024,-0.12501475869430972,-0.19796162428167846,0.7888885034869151],[0.5856200815400068,-0.2536049123392789,0.19547509894347148,0.7529333973160248,0.02349480530278693,0.8026512979929603,0.8912620959512622,0.575467042468345,0.734292166958537,0.5963629979323135,0.35970898569699045,0.5340278578101892,0.575967141679149,0.00550346617925101,0.43771524322856337,0.02044304399462305,0.4748132583282095,0.01120257270472838,0.7355571626076509,0.7817083113757488,0.4504464798819209,0.6628089005561473,0.20913678181101347,0.7934044579756825,0.5038699946400719,0.9138694528034323,0.2657627254922831,0.025940548232689487,0.46190630894774953,-0.16624407217715073,1.0111800881890045,0.0767143271156815],[-0.2795104418971317,-0.12090997403171931,0.01447557053426042,0.3741521748291635,0.5547546401614475,-0.26827306128958445,0.12301555355007704,0.24875773307759955,0.5849567469357678,0.20738620486750453,0.5969066596111153,-0.17718825322672802,0.16221751433602252,0.14238375437500805,1.04998872344878,0.061580775623761554,0.3871188460550729,0.8047289976741177,-0.05840921632586874,0.7240000938528176,-0.1746270760249556,0.514609388307586,-0.2359752473674886,0.818959898405878,0.09253750522721771,0.19654096064734017,0.25446788179281016,0.3364243165171558,-0.06310478538816763,0.4324439992309056,0.7288713959570488,0.1827902371749323],[0.7222131634113385,0.917707408104863,0.6988078405918198,0.0826878252328492,0.14394526056384532,0.6651239857952443,0.834870920880057,-0.1570872892568306,0.5493038641358778,-0.052609811452121985,0.41751452131944117,0.5959510370791735,0.06245785852017887,0.4186421347772176,0.7103692001644515,0.03699536078844003,0.7413332095957945,0.2885570765148478,-0.2359879426243321,-0.04406506499625617,0.6472057457368944,0.1519904787254215,0.4142129094921164,-0.23237997153750165,0.09750312989973821,0.8197698916020787,0.35215543212161554,0.16884640012032517,0.9261994116578064,0.603000797308401,0.14511475446680458,-0.018654873555515563],[-0.2147248407072818,0.004325278814259747,0.9014958455902126,0.17322627076651817,0.19943738562363672,0.777027944539117,0.04216502884514463,0.49806562408411253,0.8137568526524038,0.3876782736995883,0.675913958749513,0.29413639032811456,0.06165593864773949,0.1698804707961226,0.6502066123924014,0.631851847234775,0.6995201014260417,0.8319360652829285,0.6473639975023645,0.3528617942481733,0.8881905767081851,0.806443623579113,0.5360666279469241,0.9353206924258403,0.37914951815378933,0.08747367734862593,0.3548149815318321,0.7878261911874969,0.3194646046398812,0.22368144200157378,0.11306628270888652,0.48988011608606097],[0.0910536575669912,0.7367637199740134,-0.18996661462746808,0.3527734441937128,0.2166487763860461,0.6460453459463484,0.728265132347069,-0.1598051700739529,0.4401530603479931,0.11711879088117166,0.7940463426916631,0.7627794144177277,-0.0851864037607672,0.4108578565360866,0.9655209673050814,0.5604518112746546,0.4721901595708323,0.7986528842512414,0.6102610698508082,0.5858795713777459,-0.18799541435693468,0.18873148357000916,0.2213825519293563,-0.00762951902638214,0.44084807913240337,0.426102455890523,0.021407287486348545,0.18253901865528055,0.07288899143863208,0.6001420695739902,0.4780810826916726,0.02398175937841556],[0.3948167284808902,0.51240386664615,0.15725999127922113,0.6684613814895536,-0.14833019457960325,0.20861604922301824,0.16540143502090088,0.16434488420530102,-0.03129022198297669,-0.07079258307624788,0.6318480176163651,-0.012815903839061166,0.4696690475063037,0.040728212366022046,0.21904630408042436,0.036405313169080064,0.39786845502310386,0.3103706651489307,-0.18230094909369007,0.5872627379556107,0.5777978807597931,0.7325226823431363,0.6291422970479484,0.9105769183773013,0.9272838892522937,-0.09305445589271837,0.17873709200217003,-0.1540330173988527,0.0025753925078700734,0.6480080946868817,0.10597827875287545,0.6199268161929065],[0.8530917321359296,-0.11283065480472472,0.33065687682209366,0.20372498371717906,0.43946085725976725,0.04503244962800844,0.7045372681798804,0.6336205281231124,0.48913536720739187,0.7591044080052847,0.1623113368530468,0.40065249399730657,0.5953388908992583,0.15098866639920175,0.7555948009749012,0.5517193848009975,-0.08736634972579409,0.670230721575593,0.47877360203530533,0.8084431521280203,0.792377386302022,0.24413899279982088,-0.14054819348826153,-0.06476068424346347,0.38213196608427386,0.39259765299943333,0.3589429179030809,0.08485544387909966,0.4017462390774887,0.03720784960934643,-0.18999458141526615,0.8725105821313703],[0.5262234864586571,0.7966879746641508,-0.18381124669711282,-0.06920333116190158,-0.2387378104326198,-0.4533394040829342,0.2515002095719547,0.5377277136956198,0.3642019740774663,0.2890571507856695,0.5897011452803206,0.36692163728556937,0.06502788306121311,0.09924920790372613,0.016016352676516084,0.19105486490016896,-0.025585176491697833,-0.24062264030938874,0.2707817265661519,0.6070020550653468,0.4581202227631487,0.6065209456292688,-0.16334921054699805,0.639712696615926,0.23869880338527155,0.7650777785697778,0.6241624751119048,0.739929805306852,0.7412797178387577,0.5325526564195522,0.11591267613871864,0.4788271915337551],[-0.15272274039267908,0.011087369778570172,-0.17905646175320228,0.43446096047250893,-0.10886570806598206,0.5377894634797231,0.7773546860076576,-0.24992329151416012,-0.10657845591780989,0.10373474207226216,0.4757357881032964,0.0723167300385851,0.41680516737634193,0.4769527173965682,-0.2729275544718513,0.6378205253687971,0.7639137018799269,0.2858219719411906,0.4255806620855205,0.4982802573651599,0.08278892623685741,0.7322438562418448,0.7454525757689214,0.1707161117091597,0.565408194577766,0.17738895675882102,0.3189887599142294,-0.3482878576689071,0.8057999960916367,0.21403766194848683,0.4208476871267277,-0.34456576875971584],[0.015256800508991596,0.6574119634490504,0.6384902003560382,0.5508300877688715,0.5131540400010156,0.4208522727860445,0.008472587265110217,-0.05524825613317371,0.6368347461982126,0.46063421989905473,0.2422090969362022,-0.004815880449284397,-0.0140506156612205,0.4048730686201322,-0.19250802754799692,-0.044689361542404035,0.8398327898279457,-0.15154543452937808,-0.13252012681222278,0.03127008341322877,-0.0438009819624212,0.108579396473024,0.3130525859257102,0.4487227754055876,0.6223497704468348,-0.24531846884462646,0.08606933072332651,0.5571111618136357,0.6332950240607829,0.08920910620624571,0.2663993702669569,0.043597346742704414],[0.11076876166664713,0.2838725622991253,0.9730656206660204,0.22179938984355932,0.3261336023622751,-0.05543493445261232,0.1495574188767692,0.8098577105471181,0.27414732833262395,0.8179261200999246,0.10651564503097648,0.7519448444484506,-0.2196755801904494,0.045826204677645546,-0.4183956222420871,0.03988657381240882,0.5395142568227386,0.3886736820627281,0.3861897625326611,0.22252955792677553,0.5932485661825947,0.23749589248412464,0.48701002268826293,-0.04251801337765266,0.4571190163205138,0.5764122557282719,0.6215402607836276,0.04329556640759727,0.5965264718647383,0.07283959646656761,0.3936467399667261,-0.14545117296540885],[0.46965255440859227,0.8695569054339547,0.7812181676181733,0.2617035984576101,-0.2931605793092985,0.6594660604679161,0.10423387767954195,0.3729698628878782,0.7141974597190711,0.40658244880111893,0.5244132208446891,0.710725055555529,0.5443696314974641,0.07546379857523784,0.7515091271716909,-0.15703178035821966,-0.20539873096159653,-0.15608268971431952,0.6881323779106713,0.08157789530926887,0.6110152048336049,0.7451799995414534,0.6411656317142829,0.006297493117023181,0.5330717747775743,0.04241619821040654,0.8066759158868299,0.24152486654151015,0.6879271813608926,-0.056594945461549535,-0.07785227817473389,0.7340070864598672],[0.09516864268735581,0.7982040056345849,-0.33028356481499377,-0.13053629222692362,0.09463397219761319,0.3370097052945171,0.2563114204451321,0.72234477989839,0.45823747157089517,0.3795919648835759,0.3370086690553507,0.7111851948308325,-0.14038724118491475,-0.27738365630716044,0.4892136973293825,0.7630721808048369,0.11312826934504086,-0.08482952146952409,0.2212253069579051,0.045811101839989016,0.040871948192679204,-0.040137243013876014,-0.17626240248357802,0.3688536043185985,0.5237545457457052,0.08159798204779996,-0.04914810962575087,0.3307544100611922,0.5259394228414052,0.8128811083227593,-0.3476571484788351,0.14858052135870187],[0.4356276842123375,0.468313484281348,-0.23640839852316242,0.08815400458793668,0.7013852288767424,0.7176325713999953,-0.04465932929085986,0.7150035479341087,0.5193424894168397,-0.043536129835388175,0.23721785542879792,0.5778756750192,0.13380319504904806,0.11820242382295038,0.937154349313579,0.2499830109753719,0.2210470667828992,0.5921915005863717,0.19354395840057648,0.013646391410740654,-0.018182397758986522,0.5227674205669434,0.18003991925327972,0.768692711611119,0.7682737474130424,0.12302441124180381,0.5663362092278456,0.10693187047591601,-0.18816278611601214,-0.2051555470384332,0.6923519397746227,0.6847999857514693],[0.03247560552149707,0.9331931964922212,0.03156836901417781,-0.28318004788084755,0.6051848535741824,0.0685619328389828,-0.009601537404921983,0.7822555351861235,0.28353668818164457,-0.02575718507997011,0.4531319862518715,0.6765570093532123,0.4566547746710507,0.5107584975022401,0.40892173432692425,0.050731875547918144,0.027316107344223527,0.37802043601657337,-0.19470028972446612,0.20126024295463824,-0.11711139193542891,0.18617743682099852,0.42808129031354397,-0.048931211280063606,0.9181836516906696,0.6735928796661003,0.10041885212548349,0.2439243508533918,0.5154009020341715,0.574617661406028,0.25055217038462874,0.8154780014992208],[0.06154024552811755,-0.19227986300037236,0.6427198280382526,0.08762226394138818,0.8441033414517549,0.6147138703719669,0.3834437036949039,0.6243780309077618,0.21566894782691776,-0.03682219185222711,0.6546455303664984,0.4902074539912143,0.46945236846436933,0.7832675322455525,0.4295378590083266,-0.03261401375441715,0.8873798277368926,0.428984157997034,0.4754689035321343,-0.09475978088598062,0.43381524968611085,-0.24738662116201016,0.24705107541076038,0.10168947279286052,-0.0635800888725294,-0.17815861844237663,-0.19971232987747903,0.5956055071199576,0.5653758624487799,0.8919484862539915,0.9728830516727529,-0.20560180989649915],[0.2117756035210169,-0.11510750296373645,0.43974203047781474,0.45961782087423453,-0.03845374885350688,0.027894601236515954,0.19612019338902204,-0.1725757206371896,-0.19537051672938974,-0.0009987371402019622,0.609832317034907,-0.004454298618323995,0.6993502394171177,0.6018522980147081,0.030115086870731268,0.42874253869577156,0.33954301545051746,0.23118255002078295,0.7206073790727497,-0.1240740281638818,0.1163498772208613,-0.09260643890178964,0.41485277098658235,0.10535595036272932,0.25511294937193835,-0.17674815953436535,0.04236115925760243,0.43247370179827427,0.43219735860369224,0.6804720891748031,0.055497643703555234,0.049161621543198426],[0.8352796841278647,-0.1891270430543882,0.6711193039079374,0.707173952041549,-0.1925750435575899,0.7902679083954968,0.4216803830704039,0.6581783275342739,0.7798858891554048,0.06906629876384131,-0.323159700732735,0.8667046754690917,0.2588741646441632,0.07449058189077712,-0.3327465298038863,0.6781383931643719,-0.0901040392335822,0.799477183868888,0.4658054301785563,-0.18416542899158192,0.09683379552418418,0.5943741437903743,-0.029410805654732742,0.3865274814859973,-0.14273880735896438,0.011581265935617554,0.4086795052793387,0.8391854617483387,-0.09571093950239816,-0.08007561453068503,0.024346491130444865,0.19367270162694927]],"biases":[-0.1164669354454818,-0.04560368375673668,-0.13353566302226688,-0.07586089405878485,0.02734483585050602,-0.007079986119156863,0.1835044409210952,-0.15426769791894404,-0.06354232329129236,0.018435410123038752,-0.11222464736300715,0.0574666341787023,-0.026071380366636837,-0.1299409615627724,0.19197189114616148,0.033374998722914745,0.013033485535156873,0.19158497216949916,-0.11751973134745969,0.006540318418288111,-0.05864158087097977,0.08658172213178937,-0.027308627499261776,0.10786861163459832,0.04005037006524063,-0.03642289249953008,0.09156661220584943,-0.2409491821271561,0.09042671070946652,-0.016729458620979052,0.008100754301411689,-0.14847698845868262]},{"input":32,"output":9,"weights":[[0.6871348516686714,0.9830194387223137,0.5973725018050237,1.0728389028850511,0.00501309210870507,0.8989034770185707,0.5063693354183647,0.7221771323134527,0.427110130642327],[0.7549174255537391,0.43213081707545353,-0.31783231127783595,0.9174527078109868,0.7813631568628469,1.0730530774963314,0.15120075208547604,-0.06439837497890566,0.5342449642795905],[0.6975621989085855,1.4013052631917795,0.03131897686322052,0.388790069300198,-0.1302902585977064,0.6404232586298643,0.13330870238864254,1.054933399180391,0.6729506056438572],[0.32412498190538186,0.5650315319244289,0.8865617836641131,1.0135739823969636,0.090550893651719,0.5165495590629318,0.45937920066589244,0.6183385276444308,0.7805214842584977],[0.9269273724743508,-0.07539278792022568,1.0166291503693659,0.15688359247968925,0.20475407486312844,1.0558603062974425,0.7205332602283679,0.25530045581973315,0.18296317477718294],[1.1717988119422094,-0.27518814242610906,0.4698423673187797,0.7231667858800003,0.36348885705330025,-0.23011670856489225,0.48459835538707613,1.2279129098289516,1.1847837895303241],[0.6772253188117896,0.4976363593801138,1.1806086685610713,0.3939785861493916,0.7188148373784559,-0.007174449870768149,0.42970422278371906,0.15582486010422383,0.6525583117248471],[0.40127343556613265,0.8705997891181272,0.44176898460254,0.11201720383875007,0.8233206294654315,0.6434650016018391,1.0295552890662494,0.8994740435850739,-0.40969325907839665],[0.08444060355311388,0.7149649719945159,0.3248005122225089,-0.04932710557545836,0.4904988255132998,0.7407009128433097,0.3183293721303736,0.6524474160972661,0.3398752473994936],[0.8013738053224598,0.27611638349986867,0.8847389938855149,0.2112932341656426,0.626101879186503,0.7393138568807736,0.6908209318912557,0.6526513872412658,0.06308831715942262],[-0.10982802029068456,-0.1647655036053741,0.7038930488428704,1.1092760079397832,0.5578291617745414,0.6148058140089326,-0.001714063089431788,-0.01706590555364381,0.22587179849608013],[0.988043789060615,0.7355489809853852,0.7599855904181204,0.26257408391682713,0.855020333290615,0.03322642112473216,-0.03371992878687341,0.4434154656701265,-0.25306571114079807],[0.3739838177635716,0.8821651045137074,0.6442335972022586,1.0192809749836216,0.3652403288728758,0.5458354971205727,0.47349591308568656,0.6666552375575342,0.9628980310253652],[0.25188993789212116,1.0565362294703224,0.2693443712714929,0.4384913087192603,0.06018543588398638,0.04160794445385039,1.1136353965434123,-0.15795003461599583,0.7926199422850599],[-0.35595595654325024,-0.2259619009184203,1.0556310535193392,0.9737243171446615,1.2433839719305124,0.45889825694230135,0.9338878700280198,0.24465028186887258,0.151319405857126],[0.9748004374495365,-0.05380719574806084,0.13217725884782783,0.0703863976632886,0.4589896991141305,0.21492715147238023,0.7970771214747209,0.7759008884404894,0.5384751146188131],[0.8987307463748369,0.20902689598129365,0.029666391154481556,-0.03996574616233171,0.3719430266483382,0.6169400495637227,0.6671249088913453,0.36232959656124186,0.8753251845782805],[0.8003695491662761,0.5802600061592329,0.5681406840271694,0.02188132011447486,0.8310287789976695,-0.08329629846213696,0.6726776152857026,0.32079380357485454,0.04943844189184534],[0.28835560714773567,0.740746511197936,1.1598397094288413,0.40862651775422276,-0.14299287415466116,0.7962933546031776,0.7432495457667333,0.912007720021784,0.3381972857799293],[0.4895664598762427,0.058696956585727475,0.4660722535793965,0.59639112425789,0.7177882799667484,0.392085249858411,-0.16913473905286958,0.5444285636849807,0.46098638746118453],[0.4226691382500327,1.0464491636498128,0.2157734795352193,0.2143577776132214,0.2269478431544184,0.5768698313927598,0.7383120877214975,0.42955801265054794,0.8195762819731417],[0.7100642881258853,0.5084567055256759,0.5077867404661439,0.7962518025457261,0.8308167207418128,0.036750223461832855,-0.1802900949258284,0.6102472925203173,0.8265229834695492],[1.0113039735082734,0.4897667350822282,0.7744644981509021,0.31967533811984533,-0.006575647289101923,1.0945749255680737,-0.23964964372424558,0.37419053344368103,0.9119956725834165],[-0.4012853166796415,0.07556499850334084,0.37330597952622624,0.07471624012056217,0.7917319107098231,0.5292962297204277,0.4978029985152718,0.49774382350505025,0.9188246871511361],[0.5976630793770542,0.4828090026536127,-0.1314934755672354,0.5307324130548833,1.0479849520802371,0.9625035753277374,1.0104518615837796,0.372972907625635,0.9847020044593713],[0.2893314434024274,0.7279835714983078,1.1063070444353391,0.5768827512183773,0.7280163540488858,0.2803547708881211,0.33287753222803435,0.2737600321725988,-0.020851430827329088],[0.01812136058889418,1.2984103380890288,0.8610412727989908,0.6030744317897984,1.0463669250450205,0.1771507773746099,0.5763384810653943,0.6071000198497469,0.8764719013061577],[0.053352010582577346,0.3156290463951106,0.006858448279467445,1.1582636816928091,-0.09774667526228428,0.08825689352084151,1.5016476211124352,0.9056486027182431,0.36371429826074253],[0.8843719192032173,0.6127621595747517,0.3098847614269326,0.643324433823391,0.7395123310898446,0.21482430894978713,0.1689417269469092,0.03232467816875782,0.6923698031169918],[1.006773182082589,0.36345792235506813,0.3430062930073736,0.20610847862947881,0.45541354262174527,0.9538143549976655,1.0472365348778518,-0.11509275235162479,0.10012794043428158],[0.3738881274261803,0.6778131791929671,0.8339921244613546,-0.1788531235240773,0.22469280588034216,0.8917427960033143,0.26169792220193155,0.6440701505631473,1.3166545040333262],[-0.19665416607523717,0.3619970478137267,-0.28432348377347977,0.9492255841382587,0.5302219506555716,0.48565870368304354,-0.09613435410141613,0.8605223315978725,-0.12478633866645054]],"biases":[0.04887745815041966,-0.10913204477766142,0.04706195780551918,-0.14748424784021852,0.3984380378273373,-0.12314350324880614,-0.07836245532425898,-0.12262895633441231,0.08637375374202623]}]}